0.7867448192879365,-0.6657553552540247,0.16020559362385778,0.817802376852911,0.6988098438952703,0.4016503335727759,-0.9965826086702021,0.867481941362918,-0.26908018976945525,-0.5752566923914821,-0.7183917344997914,0.3022716929180347,0.08592580484527157,-0.6912938998797269,-0.8043110553591648,0.927297305542589
-0.7259255953124473,0.39544532439577385,-0.18803456785773265,0.6839566148149003,0.3716444367500127,0.6904465737753762,-0.993062917797211,-0.38878325742907394,-0.7792446652910991,-0.23964320794984872,-0.660694622462976,-0.5640238545470679,-0.14765093923663808,-0.15934496031728917,0.829090049133983,-0.09754301912575802
-0.3250160999142775,-0.8550880593699144,0.3742249192865996,-0.4606376207309051,0.37431441648325636,0.29306474163542373,0.9058640453015379,-0.27092284846058123,0.0020858111850230454,0.9133183833015299,0.9302742101822705,-0.29984700845699397,-0.9000771032946977,0.38340839542270655,-0.06408237188209176,-0.6921403810329501
-0.35339842395145626,-0.24719667294543246,0.6363538489942273,0.39645828875533673,0.3217249340641968,0.9038629875689497,0.9464258897543312,0.9477784639496103,0.8108274188847611,0.403809500088826,-0.5311672339636129,0.7485449661619006,-0.9092143534278636,-0.40956589583295133,-0.9486599065962913,0.8389098327426825
-0.4814670499081486,0.6681347124465178,-0.13215429320399696,0.4308018114071368,-0.22547774596134595,-0.14709660595809826,-0.8121166880949842,-0.6387504950705987,-0.9439573089163331,0.43493935457914934,-0.12637098647119438,-0.5320965821557455,-0.2593245888157829,0.655270634913504,0.008101688225673032,-0.8818352653383035
-0.8622266475324669,-0.4862737774489463,0.27307990880120436,0.7297522789491284,-0.7416251151779825,-0.3845092308872069,-0.2923921915730081,0.3046999033508584,-0.9720127978481146,-0.9474157165659998,-0.7035444463377525,-0.2622793031439199,-0.7716516144212422,-0.8321445947291686,-0.3378501443364912,-0.8083787377755811
-0.8659886295189034,-0.6224178830621363,0.7797325596440459,0.09567689386888811,-0.9506255044712932,-0.5652773612123558,-0.2985859241494049,0.6441645071473643,0.7876004788357902,-0.7309165379263931,-0.7024729847178366,-0.38318162464009475,-0.648340446157456,-0.7315846820013614,0.9465621119556924,-0.4285801860821159
-0.7518593006811722,0.8062830818231823,-0.0743414562300766,-0.9232390481968835,-0.022986309637874847,-0.6397354279390728,0.3823075496074384,-0.1876620697387663,-0.01608477510502837,0.4661629265887861,-0.5018293089920873,-0.39183323995817987,-0.6931345772886381,0.5236132220038221,-0.9754593910323104,0.2843261395118637
