-0.6737790590818955,0.3554357079019759,0.5615205335263442,0.8865157767557215,0.41792030975875916,0.4981115364034985,0.7884866853280361,0.9567445847806682,0.7104357211584285,-0.5453918477010324,0.688629904389817,0.024107890271033883,-0.6736329093621669,0.47493044399661155,-0.8499690315533674,-0.5775416138465357,-0.1840648396090696,0.48465881065199934,0.4194938669647761,-0.35428479713373684,-0.07573610472741965,-0.7012223936646054,-0.6852343987728304,0.737681716518132,0.028573639464509526,0.38792512888560005,0.37501366432144856,-0.689671131441081,-0.11295791995360682,0.17623876522463533,0.5003894484415041,0.8930648335111186
-0.06230750966759002,-0.63672220108921,-0.26524851225090096,0.2732596010630406,-0.5810028113372121,-0.5745144270947864,0.32403622721720704,0.8093351988742252,0.5677745772009608,0.21994293603832338,-0.6152177635681197,-0.8498163627615278,-0.6173526390638817,0.3726133897658641,-0.5392074453697286,0.09491033426181916,-0.4955252937059984,0.3556174905314349,-0.4993364793029311,0.5960898570580853,0.004271797362786156,-0.359169781890182,-0.6260380775220848,0.9483522873060084,0.5195460318582323,-0.34421032914678906,-0.4474548220911918,-0.34851173011138514,-0.944732360800852,-0.08795396891823337,0.8373189087623412,0.4107902480310315
0.8032071502379741,0.5639788600078457,0.8032273230774545,0.7614323041794495,0.43286325671273307,0.2728498115458875,0.4676435747623837,-0.8109721403746883,0.4152572801161223,0.2591790299250152,0.576434265492433,0.1372547541256739,-0.4941859437931373,0.06822074274247458,-0.39409619381099015,-0.17362643190449867,0.03304389194138002,0.7773741140257888,-0.7154038395976006,0.2631963253911618,-0.6943691957378646,0.06944164395996477,-0.39392994087411237,-0.16921388647356483,0.9965719473565009,0.4106163332147541,0.1684149776296442,0.9329292874168527,-0.32239119923489645,0.9100223400706495,0.4427472569324282,-0.35597571593586075
-0.038651957409474136,0.4161420129487594,-0.532201086150166,0.40441740373203694,0.2822625612834657,-0.019663261354383232,-0.07901974461490902,-0.45914922652739776,-0.9661214930859221,-0.7802267597758556,-0.6046635993065477,-0.8680530480143294,-0.05072432778624436,0.4179355662113713,-0.6736079306235576,0.20998100704695832,-0.3422798135570102,0.102045342338422,-0.8161200778492248,-0.8786643872108708,0.07500247423195905,0.8725958926142761,-0.38969751353460236,-0.22096524658049388,-0.893252600883049,0.396418476380743,-0.6901536345867156,-0.14180234861244156,-0.47380743023605354,-0.7808568484601719,-0.7467377011239256,0.42646803319576154
0.9880022113999187,0.5137823781774644,0.608594593129614,-0.13309965806786428,0.1806943118113442,0.7545300232915475,0.05312027831090149,-0.8324502972250394,-0.8067121724321902,-0.5220199578623048,-0.5516503408230164,-0.5100851585132686,0.9370779736279853,0.22093677243137444,0.11894474551418832,0.6159775961620391,-0.9708740839281629,0.6212044495382298,0.24006836362902906,-0.4741052716691978,-0.24432525422765616,0.2803932520272143,-0.18690352292776313,-0.0872542645441472,-0.3208556241605718,0.27465200648147725,-0.9235531881276611,0.4171540459409484,0.6961870321203085,0.19118937245807088,-0.361796389864556,-0.6641701943199125
-0.6764603138859264,-0.3228282761877932,0.10330559264559502,-0.5537384401893186,-0.4809258464714796,-0.5827538565215717,0.9455876931512768,-0.6289311781736753,-0.967998333851005,-0.7876339943762778,-0.6668896784388008,0.1707635802654639,0.16247412128640404,-0.3639566062418875,0.03519261297194287,0.9866760287551357,0.24228376982469468,-0.6631721418620693,-0.21654835822521457,0.9880196197724849,0.10518878145402999,-0.19777614887934747,0.1948946813046426,0.45853336779556364,-0.8853030894794547,-0.8894870043918806,-0.7581169556147274,-0.2895025321124469,-0.7494022934026374,0.5602874831999314,-0.5757448107064467,0.1733931340340935
0.16376064312384697,0.7946892639297944,-0.6306423971505197,0.9298023084861153,0.1017709582351014,0.009058949578733655,0.20689116488542192,-0.9418049175585848,0.29240735401001827,0.40167420188496417,-0.8816930922864128,0.45900852509694445,-0.1593013967606125,0.17864278729854788,-0.0009102088179695489,-0.7269992490545052,-0.23582437963282787,-0.5193409623394092,-0.2821062936226213,0.053740161667976016,0.8870854192801674,-0.7805097944953441,-0.7896860106534378,-0.6977294040008692,-0.007797087760756494,-0.9896239771954807,-0.4415308796038653,-0.3544748750586155,-0.7667222078638105,0.9851674047075851,0.5038823570854356,-0.29131850816852256
0.4757933781726942,0.8684969341227924,0.03767963926997342,-0.3993511151127995,-0.8580672102012472,-0.8505070502180923,0.3916112279316606,-0.4103128741695776,0.2668227173261184,0.13162058795457177,0.42417646715351864,-0.5194942438415111,0.4753151660952586,-0.6939228080687498,0.4246567229639244,-0.11514188249293134,0.7059913160808384,0.26616172280906203,0.7176551865775529,-0.20552595211542757,-0.8921892140173182,0.4738330081559996,0.09368567046444953,0.5031505666157556,-0.15825407205522612,-0.8884328080937853,0.5926986824620193,-0.17743439209057588,0.7042689624792737,0.5041725963938353,0.43766060839018883,-0.7455747320967883
