0.7848589978297704,0.5632363902442588,-0.9912744985659645,0.20514159354179373,-0.06665798372300613,0.9933849375073875,0.2468598186483335,-0.2839157085188113,0.5416631262833067,-0.5893524946147397,-0.7604042632335493,-0.7036627261262447,-0.7285433168284088,0.2515987587185473,-0.5948343794164317,-0.6459811989909172,0.4675416916925761,-0.7756381651430013,0.12229539410575185,-0.392239623649959,-0.7457991256247054,0.7006162396710172,-0.5698709110548379,0.08281545012723224
0.6447040382144293,-0.9576420205371079,-0.44737729385277447,0.39916896071162866,-0.5673830457435065,-0.12465947471109762,0.5873300448511178,-0.29149676951733583,0.8113295064930388,-0.2912302732288694,-0.5130742674897977,-0.5148196463559929,0.48679354368432426,-0.2332095325227479,0.7332254388305839,-0.3701344973446623,0.7966256857503953,-0.24655533533797036,0.9380628630537475,0.710637569036052,-0.35996163128755243,-0.25222226370268785,0.4026507260794647,-0.17231351233415393,-0.21822416307711134,-0.8452099027522515,0.2296370574852713,-0.45762353999769534,-0.680590594849233,-0.7271398425281448,0.6358917603556811,0.700067263295159,-0.4198224023552204,-0.4347254952198414,0.461153786658697,-0.5007013544655672
0.5674185812106214,-0.5969533316473394,0.5832902297674456,0.6738880019615208,0.019960296413028766,-0.7678805396593891,-0.005586341547072937,0.11211610651461235,0.021018936222535256,0.6607179471590503,-0.2308479679659572,0.37718188681312625,-0.3794600727923656,0.7878514668434922,0.18590746735851837,0.906455155924434,-0.7161920077643147,-0.10682115635311962,0.45295808751562516,-0.12171122841683868,-0.7986399057305751,0.1989293927706559,-0.8599450211320143,0.32689994132504374,0.08344134063201558,0.04462463731626709,0.7313794895839234,0.6964970140158444,-0.6005847285552044,-0.9731359078898234,-0.7451314372820306,0.31684925786632134
-0.5136002872736793,0.4500338415765459,0.713033558991486,-0.3130926548914499,-0.16767245464737823,-0.8045128024144492,-0.9505302810344471,-0.4992942135245404,0.20897296559136325,-0.1335183832884177,-0.6889669996396937,0.7557342017718858,0.2852826886687849,0.7097346914113696,-0.5234217523259448,-0.23331568014441184,0.1413502752602791,-0.10293968253751684,0.6892913946831263,0.9747984230697337,0.4449507427314716,-0.2510652682800145,-0.08443425821126116,-0.033623204992942135,0.07836603444689638,0.07256166743958437,0.8192454401947908,0.6009847749387764,0.8745295280798451,-0.5771408335495312,0.06467036540894022,0.821299798983077
-0.3221990961205661,0.8681104191800468,-0.4767823520557666,0.5720181490625735,0.4061879639217534,0.7556315413250645,-0.39743795167232077,-0.07417403857105032,-0.5068487691526427,0.4288503873476204,0.5042778593171886,-0.9643650188687813,-0.594627702402079,0.1959757756405247,0.3238622573476999,0.6105411966015786,0.8967822862193908,-0.2941601112408605,0.615464826586702,0.9507319082819918,0.887403377102777,0.10504745794791082,0.5767106477201798,0.6168416929034677,0.4573552507834431,0.1880073325933045,-0.4079877106237473,0.4208611543808911,0.7233724887452082,-0.9140732068937598,0.016889527292087703,-0.8511941384663382,-0.08480440476854123,-0.2703058464902586,0.23966738888102723,-0.66054224244648
0.7119517574739951,0.38153654217275057,-0.39681962069133014,-0.6719265495639315,-0.08281205665376801,0.2799663351075019,-0.25831111179407107,0.489200784334209,-0.4036118754933433,-0.5758296343642293,-0.06046844430287135,-0.5928788664556615,0.538553599559533,0.8714416026321581,0.8504185492513581,-0.9376559807334854,0.1077828180115763,-0.09587014500462909,0.8998749709727083,0.5297984893502354,0.3339928883490473,-0.2636541127519305,-0.20214213700068928,0.20198709147633465,-0.6500915341790978,0.7713020824218011,0.1373572276387922,0.10533925971781577,-0.381863420173163,-0.6794940694175329,0.5485351534948684,-0.5594268915579514
-0.8234130755879643,-0.7693612864426744,0.9312366744566869,-0.5860153328271323,-0.16434197108218251,-0.0714563146684215,-0.6257147364038234,-0.7643779266988189,-0.6068892357836606,-0.3842403347573726,0.2926676134896613,0.8927676185397844,0.11526756746252032,0.3882688246543513,0.5449687259920073,0.37379957778788464,-0.14914307515692848,0.15228875480765192,-0.9686438857955106,-0.4057871535062616,-0.28504732183462345,0.35806277547280874,-0.6846630462417853,-0.8438848070537568,0.45171033921106796,-0.6420874163108767,0.09083875411974396,-0.21109185908835282,0.4739362668812459,-0.1114621209647968,0.6582266011215161,0.1315106077164896,-0.26090435521637434,-0.8735351691654254,-0.7607505740307765,0.268763065340353
0.4178982668556481,-0.4613623969284244,0.17699685002008647,0.5633166665660285,0.10364616414616723,0.23009560269896157,-0.8521090750304074,-0.20622004270343175,-0.0643553537887096,-0.7543899818370579,0.30139620651879406,0.1961469621019154,0.6649293683460149,0.9367906612143282,0.7566244058393732,0.2831259242359294,-0.48322106134646337,0.7937075593033889,-0.35464875974259713,0.308215739026785,0.2864676713777816,-0.21724152974542132,0.00014061877594229166,-0.7239780677349095,0.6474134798349231,-0.40784735661204485,-0.17705579085894652,-0.0015359603624474083,0.3187181259381433,0.5222487163118656,0.14497937920619997,-0.1914570609533255,-0.5436160200569855,0.780844725533087,0.1601186020455283,-0.32335127491107407
-0.6707157682439857,-0.8546232850375437,-0.3251250971284614,0.9185345642927463,0.4654087204798054,0.9221839784212087,-0.7471210565485342,0.047677398450525876,0.06149952929890823,-0.12186311928237847,0.5510563602829368,0.7549155975777628,-0.6329736899230876,-0.02314498220689143,-0.15460141882341794,-0.10920130132221617,-0.39858094283167844,-0.9354243543754794,-0.2471316149094578,-0.4901201433636413,-0.35627940808236613,-0.2593380287142979,-0.2736104419317451,-0.013791709878884895,0.0178774638408985,-0.636246504495277,0.004183701266212925,-0.7882374453028433,0.9205584530147584,-0.9048537295595649,-0.653335917632287,0.9187023173997839,-0.6490005291112708,0.9127169473859409,-0.2878205690229525,0.920081845322994
0.03517125999281889,0.08971915518525608,-0.05813349390542455,0.6061820766748724,0.7425645202348203,-0.5379308319603373,0.3221878650114325,-0.5092364267414409,-0.563200070571841,-0.5770310806172951,0.0893835204218767,-0.253034361829062,-0.032392813068123694,-0.14761544060436949,-0.37123828546288395,0.7341262294288424,-0.6915172136414398,0.325217211077812,-0.037444659801450175,0.798846508611943,-0.11315195217632645,-0.2817848094598103,0.3749583537072838,-0.04144521906525611,0.5268610560253566,0.8369269162386686,0.7289960681805119,-0.6935591922025128,0.17158774661193288,-0.3889636232589291,0.33236722548929887,-0.9019353291328622,-0.7519154364224023,-0.03506746478072009,-0.05911149574612229,0.6303742687991134
0.1536443658555824,0.728562234467913,0.6140145144964597,0.6863956962190607,-0.26045732571986013,0.6630375044556294,-0.9478930659604747,0.8737894590099802,-0.15799363279696887,-0.28640294710654457,0.46200303035310464,-0.6360375809833738,0.6030586023869413,0.5658206421927947,-0.42605458774368454,0.15412314730941556,-0.2620693983615716,-0.9355838838015378,-0.9171819396096015,-0.19028444528453003,0.3030159599973956,-0.26899545769226485,0.9117402671514243,-0.8257585260500542,0.9124606633221106,-0.559331900568196,-0.9690042223941862,0.8751381825768392,-0.033380071562676195,-0.6909772532935381,0.05992108971854737,0.6707353686633886,-0.37102399285146537,0.39807860948876117,-0.42355987178297005,-0.1908872714288543
0.7306806265576558,0.6406940582932583,-0.08186909985380941,0.3432518504523092,-0.6582965673790324,-0.4317760117173286,0.2056164659167672,0.6561827996541916,0.886521225173998,-0.03691753283351984,-0.37821142938295793,0.5388357878659691,-0.3396114846535947,0.41520238880640226,-0.0597020991402073,0.5662456840524612,-0.3218610039807701,0.2349280967267522,-0.46465328462324007,-0.6576833988523068,0.9632607311608281,-0.9989665136868848,0.5920989742325597,0.18045799985149902,-0.0849266216045923,-0.39072639905204487,0.3932244701058789,-0.03439543345491547,0.8266456713679862,0.7167741142342596,-0.28488688471079193,-0.49211491911516037,0.47351348189507125,-0.30258280206634547,0.946837872274163,-0.9316442449430569
-0.9032763765405822,0.5048901821411487,-0.71055382354084,-0.16367411645550378,0.14620039065175683,0.1940252574392598,0.7460101706445941,-0.6682953408892878,0.10961005142024227,0.8891036155197742,-0.45248928082507156,-0.11147268375681962,0.19293540336106352,-0.21378532707156062,-0.7070589814706654,-0.11786485723521412,0.5140569188584643,-0.5707897317381314,0.9986713566533223,-0.7329962146587057,0.3496422630901781,0.3202031422429015,0.7543894591900011,-0.12367431716545307,0.7854782838591572,0.8634449511575857,-0.21433985653215992,0.4713417210180946,-0.8990354861170011,-0.7353196156932038,-0.6952582657697584,-0.43996377146697574,0.43768022936944107,-0.3839806669226724,-0.22620659859660286,0.40217205474802986
0.956536098366497,-0.08556359404793956,0.4087618122760339,0.8217720896551959,0.5562839967440374,0.41584899406383036,0.3533449759295302,-0.9186573545217813,0.6493384264142292,-0.6485169635525345,-0.9124330723597212,0.5890254249823166,0.07895285217264059,0.4948386085759158,-0.503489278560479,-0.952813554304468,-0.44355420169944804,-0.5235610393241159,0.8250661067684937,-0.5887293519646821,0.5868146044886886,-0.9741347267563185,0.15115394193611165,-0.4849544828035557,0.06588779248897203,0.1067448880471702,0.9840261108205484,0.6239515663111401,-0.3318863793915514,-0.3058071701234246,-0.7194995726114484,0.35093187240120294,0.04442617390775605,0.8441932856750531,0.39993611874807455,-0.3598965720009655
0.845075422504491,-0.5676730785600419,0.9380484038684993,0.6540756310061207,0.8944566309349826,0.6972815050489511,0.48688032458952146,-0.9145619703633636,-0.5002376085770215,-0.41001805530756785,-0.45712232526450847,-0.08115193172247737,0.45843724638694305,0.6955482245509659,-0.9979964097383847,-0.8133704407058289,-0.9255711988925541,0.3759301205308434,-0.33871217453732627,0.4866114044121632,0.8444026877542263,0.5615181507329052,0.5281545192704982,0.25790671208568305,-0.5740415991954273,0.8115573409584895,0.5237426174012774,-0.6670604878603186,-0.5860431279901077,-0.35157227283107395,0.3879817123943534,0.21202584071554842,0.6406094847881996,-0.7519551316688076,0.8521310693601372,-0.5882147478350734
0.9360900495529954,0.5710158433785095,-0.8284915355942224,-0.30559930032420346,0.13416641945298413,-0.925999040780612,0.6191185888069752,-0.4800091853451047,0.5161595493172426,-0.9058207647971721,-0.8487709527478524,-0.1534979237939038,-0.14695817042747894,-0.7359226133907282,0.0475864728973272,0.6669057917962249,0.8708531659316023,0.8298856803598522,0.39010332794443725,-0.5135767307618979,0.39370677964901346,-0.023850676370904322,0.001373417723061765,-0.22471027434092972,-0.6786903313135124,-0.39953814146775635,-0.7693607443538057,-0.9794661430996894,-0.7196770788701856,0.0943750404654371,-0.7735583357224345,0.43698180132137043,0.39854253845581034,0.5378991166553468,-0.8005555316116975,0.10400597744795048
0.4609533410721074,0.9309013433486915,0.24077353750929453,0.5917266142538633,0.8977072713715428,0.9689865692767918,0.5372895957933899,0.48685497342933015,0.05513303577144635,-0.27840563420565845,0.018646631345339726,-0.1776729476122354,0.9801518314834003,0.39883798195043707,0.5397613397293786,-0.5135799789557485,0.271682457317151,-0.9613502488557293,-0.4653214326437145,0.345082584196031,0.3489880135648631,-0.3217431576010512,0.20465495128403632,0.06547348062102576,0.48383345021015667,0.7962322746943238,0.7549736367187907,0.11647472688175675,-0.08488232091322168,-0.9592798352847627,-0.8610857221521069,0.04126044848137145,0.043438391356317885,0.4696740288785861,-0.2123478672012593,0.36653227487327356
0.06283050439088123,-0.5854975153670929,-0.004740058799183933,0.647106063765176,-0.3825209240207226,0.8543482308819641,0.4003615249175785,0.991935445141386,0.4288011624444701,0.7489748981427569,-0.01887442965966679,-0.1975539384971987,0.9221476337261665,0.9140114965729218,0.1751145941278971,0.7923607243707933,0.8126527961383154,-0.43827027105846295,-0.7643375529029146,0.45312976282624207,-0.7540175865002472,-0.7916132897686294,-0.9808349223797455,0.653595149728943,-0.1464377234751537,-0.6429739470248115,-0.5952465072211763,-0.18766228187122524,0.37444142730896,0.3692030842213885,-0.9259994068409902,-0.7276459801068895,-0.7323312659504921,-0.915913090965967,0.23147387163208055,-0.7844847278743825
-0.9223456736996856,-0.22915176910703883,0.6025038016003343,-0.5391642804306456,-0.9426513307822522,-0.18009920037037785,-0.8677179436517262,-0.02153941036870699,0.9565077669092859,0.41253701824740974,0.11951130422738054,-0.49904159202071185,-0.7302098365504908,-0.13435746379224622,-0.20826435053182113,0.8517508854601572,-0.560941318516228,0.8641730153909937,-0.43588901161711346,0.5242955882350444,0.8159154389192307,0.3509723775509348,-0.5958544423944085,-0.21472863817767784,-0.6564011683947815,0.18516612086342787,-0.2937859558395892,0.7297165612219232,-0.36795380445588277,-0.7670339067246885,0.29577268789011346,0.1811176820422824,-0.34701957800748695,0.9051374125950904,0.7413657580786752,0.9084231675728658
0.39733883860977137,-0.6536167465507023,-0.714797620816692,0.016560055151277453,-0.5019602849877387,0.8302515525062393,-0.7265651221515381,0.7074066390788101,-0.6769064122203652,-0.4735909396531699,0.8643185717240418,-0.5965999685272885,0.672832916157452,0.546134542981429,0.961267252303025,-0.062437841615102796,-0.5208993787793148,0.1892416973919664,0.37468791674410507,-0.9854823246613587,0.5128757278661746,-0.13242720013473575,-0.9214567089670387,0.012201478783891995,-0.7108558527107838,0.07323448628703866,-0.5147932518750244,0.0037358525530384323,-0.6686923872255337,0.06410986061918433,-0.4751702589755069,-0.6505781385513953,0.9292249827588914,0.051547539700132594,-0.1188204428720594,0.3995037568122852
0.1798188976619124,-0.6729233525355358,-0.09143202348256785,0.14444220184823875,-0.20584693769385276,0.7031849174472453,0.2990857394134325,0.28190366062551053,-0.9963773549896169,0.7532770504472885,0.6538905850875167,0.5972463654100726,0.7829890370145096,0.22099618006406496,-0.7663460187779081,-0.9556016994265106,-0.43964556211896477,-0.6921684100799641,0.8070165306765065,0.2749772345011492,-0.1926368441721269,0.12331575811007056,0.555292682190001,0.28722722964196423,0.47555454621750237,0.866004329690768,0.3481469649537934,-0.5357340103846386,-0.43866931528648223,-0.5070716196144034,-0.7317621547454356,0.4377287753609971,0.6876070043973976,-0.9240850215008074,0.9134682706854529,-0.8715119896163155
0.401285203705688,-0.35692167176444234,0.8270898114021763,0.08153193524703517,-0.8995260441395598,0.3435731029409128,-0.017675438518769848,0.3851021816857776,0.23960156813032163,0.6457107024500415,-0.6727962728930987,-0.9122442019176553,0.8987280618329769,-0.3741769193679758,-0.48028614848637763,0.5710654235730699,-0.12592361359610305,-0.68772064966065,0.8086679294300623,-0.30525081824643174,0.5240700144422064,-0.997454324930739,-0.6344980387599739,0.35508782065143785,0.11634324753352643,-0.4119713516344825,-0.32169225207100705,0.8270588448656853,-0.672617693999386,0.9452737054440501,-0.6124036602301843,-0.9845348388385946,0.03132497154043801,0.6786532745380782,0.14123575169581448,-0.39858921960506
0.80157053244085,-0.5232670054999173,-0.6848526922348726,0.993013968851209,0.10359182167118064,0.9163293992416826,-0.29069950432970204,0.30275421672328373,-0.8123068363545571,0.7379063891604307,-0.5309359870991979,-0.9887600006055248,0.9117408352035965,0.7950651119979664,0.8447365554297981,0.4297098290791779,0.5535177867629191,0.17693761872652058,0.03579427143635838,0.9669126083124513,-0.7036448532939183,0.9236615488479423,0.9611531788613021,-0.409286143167231,0.47320373249739056,0.17717973196878756,0.2536399096546236,0.25964985041358646,0.6502224568797228,-0.9241379520612116,0.9335216678332574,-0.7933557242470257,-0.566923858540807,0.11890829088498944,0.5380610590661619,0.6661123261677462
-0.38147478632663523,0.6913547525760564,0.8297476032661306,-0.9297140512311362,0.8865635429236076,-0.8014797799603031,-0.7749860825905996,0.05211155215968777,0.9523339978688266,-0.8337586411794498,0.11154299484143171,0.527279467485942,-0.16250228669605793,-0.2732132368189335,-0.9316242754200046,0.33702104733038274,0.9039153419432375,0.41122034997809953,-0.13716326382254906,-0.5292091322582553,-0.7644727302665488,-0.3702684609532001,-0.9190931388404775,-0.8122164185735543,-0.37833177861550116,0.08486262573346504,0.22708684642531218,0.7757545723852939,-0.6471077566689241,-0.8602108173617062,-0.18556344739185526,0.6129447305923155,0.15264469205732256,0.07209143711531696,0.6401422035994186,-0.8580080207593743
0.7859503247101405,0.7813023068687981,-0.5419139331009568,-0.991095981324627,-0.37927331355696103,-0.3951514147925048,0.3574243367929206,0.4923257554758438,0.32983003987582094,-0.9556865867467641,-0.3587295388746239,-0.8586333971099018,-0.2618724663335463,-0.6157378467280947,0.9643389291314768,0.9276076982668318,-0.6918229897327941,0.5058217270592971,-0.2998604798326969,0.4297051807689698,-0.6822486755350681,0.8633309612719189,0.6669723068798448,-0.3263984549959329,-0.1339224228335829,-0.04128068975902566,0.49319748740022584,-0.854787345598901,-0.8253200940708483,-0.7520621527389375,0.7907546961410796,0.06732666498816764,-0.826913539369728,-0.9045049544095274,-0.15905452723621916,0.4643288348590964
0.21903875973694586,-0.5789993772972561,0.6574327482985574,0.25148503087913054,-0.6290497972620948,-0.8961232015726674,-0.7417084944950363,-0.7068914264459469,-0.12587501822385416,0.22194281192035104,-0.859002033151425,0.07571654957269724,0.6318930122766424,0.08952415880595677,-0.9130985436978596,0.10704122040292452,-0.11691434381178412,0.07279012808530427,0.9352680844699028,-0.961560054465608,0.06919608207218242,-0.1858032350542782,-0.5361675449356225,-0.6189697957703384,-0.5675107575055027,0.9002184892959311,-0.6532587565318797,0.018373608031642785,-0.8126151109416213,-0.23331301681045513,-0.8967624040333242,0.47969361123086895,0.5935000021120795,0.7987758900643489,0.9149132007654501,0.4518491196479848
-0.15503218523284468,-0.41862283836765557,0.11560256738954111,-0.06230479563559599,0.4060243062170621,0.5022393290149552,0.4831231682867847,0.6009171713562469,-0.3183493890909852,-0.052037682127907825,0.11368112790788754,0.2787685796578907,0.39463832515465813,-0.9735163832016436,-0.141672893666688,0.2513274941849173,0.09102452021874186,0.028618954345000613,0.18141549719569317,0.5565130031863119,-0.17838293735523658,0.22776624299360893,-0.9519062020815086,-0.061759668735178685,0.7654906131946608,-0.190280569286305,-0.8659011448437466,0.5849707531476218,-0.5337212342895421,-0.9686589448962668,0.21950482579963615,-0.7467997676037548,0.29808448062770476,-0.912330519492119,0.36581583823946584,0.28294770315455553
0.983396343975621,-0.7923084637267237,-0.8216899273513503,0.7263215160934313,0.27837232025643477,0.6320299939775071,0.8829898314644156,-0.0961213290796068,-0.30838144249052246,-0.5142133996079141,0.9321660120103443,0.7130000943994275,0.35406415328439156,-0.825628513330434,0.844132094004812,-0.07562283269259384,-0.9571517741365596,0.44977238735212444,-0.7133962824248095,-0.5255096026266195,0.9312111156832654,0.5900355194411113,0.632696924871109,0.38414887501334816,-0.40364128125191545,0.7886396036145726,0.06280485096783295,0.8506451100466077,0.17345484669259092,0.2165205944902262,-0.16836583825606555,0.38670705935120964,-0.1601526364419974,0.8922542671566198,-0.95463162422345,-0.73540399358311
-0.771156121588678,-0.6735567858392877,-0.701066099317462,0.3431174018673433,-0.44988638705185013,-0.8531650246515947,0.6230607740312184,0.9091124864829592,0.495099327721763,-0.1514634719071255,0.505541514575258,-0.6718317152178657,0.6327185613708681,-0.7509885848331583,-0.060941936437135524,0.9288627698038237,0.5210635382488613,-0.7479420218633479,0.5491896415959459,-0.4231094222319314,-0.21209560858063803,-0.5964872870350011,-0.34187613254056304,0.54934668670671,-0.7902430308561879,-0.6885821608187284,-0.3647426544868928,-0.17892013327136458,-0.5487301288970008,-0.9719023851132835,-0.18820029188312315,-0.13885418647087588,0.9357551973473781,0.24753959279761606,0.12758785494744052,-0.2601153058868173
-0.8975143217063388,0.4241925781654097,0.7858017908294321,-0.05278805550095611,0.9822788498120825,0.3912148883398585,-0.9168144001759366,-0.8171705004233825,-0.04867674155361601,0.7482601168553822,0.20056231821078607,-0.703660299865648,0.07471742308209173,-0.7038952310179623,0.43120909925898077,0.5644824571969858,-0.8914606459421361,-0.772133569008776,-0.7987857639140006,-0.9230087849257844,0.9317177259835985,0.02103306047861553,-0.03119963710009377,0.5010590221273483,0.5948196456469703,0.9499120308046782,-0.15983979805586035,0.7373057113964485,0.7234008835612995,-0.4644963522255574,0.7193067884319315,-0.873905939629047,0.01733741490486662,-0.6563420721842128,0.45000068030827856,0.9707164367394248
-0.7310186924276563,0.7517083169801297,0.41409449038962776,-0.2817324853280412,0.3862343319493611,0.4195750309327557,0.034012627341649004,-0.9988835194540338,-0.9544412358449941,-0.0641200695794466,0.38145660241701274,-0.8038565078384681,-0.07583388869784446,-0.7348226245196292,0.81032510439349,-0.13853237155849008,0.4133060237475834,0.7906370140323884,0.7722754919143457,-0.6707826435763009,0.4159948927386674,-0.7082311500018401,0.012119596949583977,0.46170856670011884,-0.019018815269374878,-0.8529680698302571,0.44343661138016177,-0.017598546060969777,0.7603431980891229,-0.14950376875017346,-0.8933175219519496,0.5841136381948793,0.2931620090060838,-0.9618675347973447,0.06403117054580743,0.6934831245122968
-0.8730583503854568,-0.24985379110072214,-0.5385587042176712,-0.4885807175569914,-0.6650022939661817,-0.1991710856164446,-0.8391276435794817,-0.31089607731279334,0.5907207595952575,-0.00010268320975725942,0.7477299849261971,-0.6819291252465858,-0.4709915004576135,-0.948634416635981,-0.42495243722657383,-0.6166907803179202,0.9102718558125018,0.03466974294398728,-0.9196255524556247,-0.6260445490439943,0.2507601709099314,0.1735575707549546,0.5970499796169344,0.421642541510308,-0.6651789543014579,0.9113055624359461,0.6034165773231241,0.43487182654264167,0.4041825705547817,-0.22517422822549338,0.07662945460014003,-0.27056786505431485,-0.32326697274984406,-0.42725163040032266,-0.9396176832297725,0.6047370398303318
0.6108867201624009,-0.34933922126379446,-0.672022619900301,-0.4670933979524905,-0.3545369090749637,0.2854942114316714,0.6291692196732659,-0.8775197663894665,0.695658452485709,-0.4342133405919737,-0.8381662801486496,0.26694682427802907,-0.6915087155892257,0.457894432979433,-0.4303439695831994,0.14770209957844127,-0.8287311639202088,-0.4319681253209344,-0.41381853399112534,0.6116378043925572,-0.07773925605998566,-0.6517575375891784,-0.08526990019704783,0.8636947620132689,-0.5729249457282448,-0.2665049343097621,-0.12958648436832676,-0.9971069512078776,-0.11499767926260218,-0.6778700478555988,0.3265260602039297,0.8537298417000043,0.6131516218788085,-0.608105849292091,0.7914016724042923,-0.5004469190660568
0.47520505450952366,-0.12654200596931964,0.8878460952670999,-0.3696111796562451,0.20422072148569903,0.5147672586698087,-0.8340398000727722,-0.6612892262753616,-0.025551297350700386,-0.30702957840505807,-0.26725607991652844,-0.5198073429027255,-0.07906628208324529,-0.7489330212430438,0.3909196842078382,0.8570343316761801,0.703172214746312,-0.5582379439217673,-0.23957187850817174,-0.052210964736433274,-0.2575781212164949,-0.27242434791703296,0.25377447055974445,0.004057030215815383,-0.23110589192189535,0.9463181735764339,0.18523256019823808,-0.9095046962397062,0.7810466843827293,0.22789764309325933,-0.7179918854999496,0.2816528213437881,0.39076864850004367,0.692723473251295,0.8951040876388388,0.3387621065129862
-0.11780100038778141,-0.7585518603425367,0.9577404158589495,0.1476734069174075,-0.40971498250933025,0.8795709024212761,-0.6777942229249121,-0.9718801078618058,-0.907346408244964,0.015734251593383597,-0.05481437308304482,-0.4172633122642835,-0.43778751667250826,-0.41375738184875543,0.07493658123539126,-0.6844101778026295,-0.7353788450307917,-0.06818857772522624,0.8467826702521724,0.11202104328366835,-0.7603861934318115,0.4346430347374812,-0.42672723646922717,-0.08548518725666376,-0.05061687867207132,-0.1151611752600914,-0.9231065357112642,-0.7694671477255306,0.008945049151712015,-0.7547481489697847,0.6937739579272317,0.8782478977891017,-0.3604746351426078,0.44360529724681075,0.21341622231945512,-0.5263189415503313
0.9062257972150136,0.22189610676191873,0.1902924498336387,0.39787695110179966,-0.07085717259369217,-0.039030395125231765,0.973735853934369,-0.03279955775467047,-0.8115994894487608,0.9263324068689311,0.12210058167982862,0.1729169064323357,0.9212946234231361,-0.9423698164686318,-0.5705751861521076,-0.8308163799186594,0.5066456920412494,0.6513994942906813,0.4663774682842239,-0.46855636674673495,-0.8397161150243222,-0.11463647032107871,-0.4893709216062443,-0.4223096217783586,-0.7053943458985104,-0.058918921645950695,0.4548740079896314,-0.40638765107964137,0.7605765961198048,-0.01032604297701778,-0.4065989739994318,0.3075453304562823,-0.5121589372780408,0.9846801173181268,-0.7828572199396913,-0.3920161232791364
-0.030633674093738072,0.23486434818534696,0.5743127889524495,-0.5543555904402957,0.9927170334303801,-0.08824607320847733,-0.03137903076780191,0.17039062554897066,0.8845612834542875,0.12832994624508465,-0.08204496409318462,-0.39066296736678363,-0.7483960096804794,0.5329322502003897,-0.4489451741483841,-0.03605525867694426,-0.16143489280141288,0.03008459040149747,-0.6598548601084557,-0.34396677524229324,-0.055975005258727784,0.7032327964311744,0.9925085756362735,-0.38016093886795077,-0.19013827862199606,-0.4839390100417498,0.9778688846593411,-0.29222429185689003,0.043668492973504724,-0.2447450273154499,0.8047435908993146,-0.8007907713529834,-0.796180754239806,0.6892973627283392,-0.11494726981697156,0.14032190986915172
0.9243838908636486,-0.25824521448337046,-0.6106526262809855,-0.5972092828393385,-0.5536322922739945,-0.43924848913637193,-0.49839436029679796,0.111371868723386,-0.9879491742802404,-0.26554347483984353,0.6223288243634828,0.6281488295187037,-0.09750136548212751,-0.9003354293643144,-0.8849962899028105,-0.08788330111706566,-0.37859623577330304,0.5928676786983507,-0.7966889522345852,-0.18981308771251038,0.6744795721313397,-0.44821369907917163,-0.9026075422084945,0.5111478599369492,0.7667084740246901,-0.6145407821365207,-0.36748232311606643,0.4366955881226142,0.2447010754462895,0.47777386089941043,0.5511636025772797,-0.18439609399902568,0.17586187178169888,0.09549192250750238,-0.3557438828771742,-0.08696625400050695
0.39975997887195813,0.14661374378163594,0.7532516167101846,0.06359188476418254,0.8896886855039887,0.6108538360302711,0.5277199622135602,-0.9159720294366611,-0.17875222035623595,-0.999144454826493,0.4315559641307989,-0.4464045173318365,-0.026741378883285538,-0.6536233707429855,0.06145180660670868,-0.5963849601915887,0.808872374975742,0.8625884016568739,0.019580281613037043,-0.5573622469311728,0.14695610446353857,0.2709677131555448,-0.9689377301824982,-0.39893649793636965,-0.46490448101986304,-0.39496885495792755,-0.1114162396214784,0.6286292834302529,-0.7034794062206193,-0.7138668295337711,-0.6886646748156637,-0.5601098897881494
-0.449528527637725,-0.628577901846034,0.32263399943396176,-0.6318426883886572,-0.3382958769672144,0.9304120737634007,-0.16631016921481256,0.7758953661431522,-0.6285663485458417,0.03864819024455568,-0.8184930231346288,0.43885433640052485,-0.3933055198828872,-0.7757529893784061,0.33880753262375785,0.40507919579696394,0.38211639960930466,-0.9377865675066233,0.8384248787987079,-0.36175353077717887,-0.13371399518533345,0.5758004619057777,-0.730665593864593,-0.49065966632736346,-0.47274590810337846,0.6025351705912012,0.13569950350436355,-0.23494046665601753,-0.8291240093405572,0.4224987749511271,-0.2898649270878739,0.9623228326652702
-0.37746873238947165,-0.1811317576711784,-0.4261814699879052,0.5764502202906545,-0.3532531737244984,-0.5103175058699425,-0.8920298268298685,-0.18963742057500266,0.8269701702016008,-0.11812420928927447,0.3495796984506807,0.3971830196239079,0.35048977819376637,0.040710927045508605,0.2849417351411938,0.3419051091462735,0.7898259448093277,-0.7595304460608014,-0.9634145363193782,-0.9259841863406459,0.7943212569496767,-0.9628785273174447,0.7334689286746199,0.3234148198036846,-0.30022765247742345,0.24856735920687423,-0.2160021925717217,0.8447381822692088,0.5000690704443504,0.1416030862615012,0.3950384150936086,-0.9702504910652985
0.058326100454768603,0.5330461349241844,-0.9311467608868302,0.8856655004826943,-0.1886258592108383,0.620455196410673,-0.8849945910434964,0.44341437197528966,0.08956761172648675,-0.5157548439668245,-0.6065642787904071,-0.6937810020550848,0.9397321780525296,-0.11794445641801965,0.21710725170637857,0.9268136593258705,-0.4545694582771729,-0.9589468743926779,-0.48646507902610914,-0.031055688707160023,0.13773752629657143,-0.3080291059188116,-0.2603593265500699,-0.7721826976377799
-0.9515897354354994,-0.6814634894238167,0.5363265248587274,-0.007651714306607937,-0.02228508940825047,-0.07244162393173981,-0.03423509849242956,-0.6507871505795262,0.43642896048513347,0.8274895474873782,-0.0942772995361143,-0.7632141871713118,-0.9393212776338589,0.3607513932345905,-0.5619012691510359,-0.7978633608981225,0.39897904390184213,-0.8570484888114183,0.8584117421944062,-0.905609163745676,0.5382717696513977,0.44530271471658667,-0.4901324758188981,0.09192670751763243
0.7669425318129806,-0.03475688320285375,0.6125635611771609,-0.41068331692196325,0.3318591822322077,-0.6046515034349749,-0.7697218611425214,0.15943449245558527,-0.7537925391889064,-0.022877461538935773,0.9233144656271932,-0.36958561849441196,-0.8119302820248036,0.21593489836305602,0.7716065443545919,-0.16401086514392937,0.8266822210381537,-0.20395220096411348,-0.5459376533696065,-0.399254269757892,0.4733589143198993,0.9496796697950032,0.1381009060867593,-0.1343502990838663,-0.5464208829578794,0.47009361101447,0.8451375909754923,-0.5479878216685423,-0.3417839511307672,0.3676706519031241,-0.2957683735260952,0.9555495659593558
-0.7697089675870719,-0.32324603711666744,-0.12016973697174071,0.5201191447523041,0.6766943768989511,-0.40926246490084406,0.9987775109180099,0.09753140707915553,0.937030349292274,0.9228189394765296,0.8871998410147206,-0.02870681483266324,0.6281027096737217,-0.6897500092190616,0.1673737630981018,-0.8683719849840992,-0.27204314954738806,-0.5356476265135763,0.19908696311015528,-0.9938899199007096,0.40154818570509754,-0.908382432204452,-0.25109241495125345,0.08671328629214448
0.2782948358778461,0.17740187813728014,0.9065917784146551,0.31302991263638447,0.5518110242394689,-0.30218687739629235,-0.29743262734734643,0.4368312084194772,-0.40281089395003433,-0.6840729512887558,-0.9673957995031899,-0.9488415787727327,0.6672586492684154,0.6716521447032924,-0.22914102473218168,-0.8607721442212657,-0.936296172464236,-0.8076613931352419,0.15055303872884696,-0.3162675111642026,0.14711561857160516,0.13253798891922908,-0.7981015985688185,-0.5521200685617256
-0.1845177163405134,-0.8228993746796553,0.5821152028927392,-0.2874506552639815,0.3071224351567501,-0.09041217778010657,0.6968291051727153,-0.3579720959058914,0.08342619626660674,-0.3526948326148325,0.7257215231337824,-0.7972768471814973,-0.9603986998768792,-0.30952592413465263,0.7845915705742572,0.6533112713757594,-0.8495755905523878,-0.20889110278769296,0.08451551636829735,-0.5760716449672805,0.5265294129851492,0.9703100479002866,-0.49726954726738337,-0.05626922686935676
-0.7536086995862554,0.6958991308825697,-0.604057088973323,0.3382630008341747,-0.1982189155009575,-0.13732398561859838,0.1554253942264039,0.6752340731809381,0.9011202032318908,0.1249702719320891,0.20886110118699963,0.6989617751438735,-0.9351904824107331,-0.6937018661699126,0.613047885027922,-0.20248908290855727,-0.35879179271050887,0.8692404883165823,-0.4037541319105842,0.6187048554523338,-0.37650128289934237,0.6394845659748813,-0.8235426048561145,-0.35759026708365726,0.12067263318911525,-0.4786759304325783,0.625727451220321,-0.31497535451372194,0.7999232882906175,-0.007243355237061877,0.744274129381088,-0.4305135964321112
-0.10654514540859394,0.11063108384317721,-0.5708924039025418,-0.1945351735167058,0.022501061431819736,-0.4857984052992179,-0.5915096601256482,-0.4262258451597567,0.2762918723096841,0.7758129478456792,-0.084550423083803,0.7285461914761844,-0.45748796955303717,0.16545774518865608,-0.4072666190245309,0.5658537171880786,-0.7999279508323285,0.2711212757246566,0.16747261537295688,-0.8939504895426884,0.12903071527248877,0.7937789415795389,0.15920666936725203,-0.26322091272503423
0.8349683325617696,-0.27874720427964084,-0.07547318802561542,0.5484154496222582,0.9207707938183094,-0.9709572706728962,0.4632183940448271,0.5610626453202878,-0.25302822090395183,-0.33179476084549386,-0.04134380393032,0.7809203003075791,0.26652016478920504,-0.7175086750607556,-0.48694427854067146,-0.8308673975545469,-0.7403096132388718,0.9952521474655909,0.443272201830162,-0.5117961015870005,-0.5647965841085671,0.44908541778916944,0.27372555146982047,0.4576497111492517,0.48986598775231815,0.19632974151409077,0.8903628473843475,0.9635584795301497,0.9399875855723441,-0.9227977817939461,0.830781948070831,0.38163994059997264
0.1940550998829227,-0.38954989137924567,-0.7558770113178495,0.34435468220123755,0.11459814853329897,-0.63736476641767,-0.025134009046923644,0.8137020973065316,-0.26535906308093504,0.9627006512578198,-0.9870174601107022,-0.466373435359011,-0.1926024312665584,0.9318461620398784,-0.860039928011413,-0.38414387399091865,0.25958986110191806,-0.8201085560774926,-0.4263665208109604,-0.11919395073500882,0.45862216171213444,0.13112577610942355,0.8247541663788458,-0.6280337944479479,0.48860490065367257,0.363827642229535,-0.23381307481546276,0.24868871266662684,-0.6454353842763054,-0.9060320541460034,0.4375682557797209,0.9532168763072757
-0.39377170194817546,0.7068695471115891,-0.05042291764613438,0.7338463739923307,-0.32861815576813336,0.10887096806406604,0.31664567496880625,-0.0050039527413621165,0.8991029699126334,-0.34817356013980305,0.6862246140236763,-0.4393512964747841,-0.1489365440464787,0.46066432588533446,-0.7792516390746371,0.08972956790960973,-0.49291689715116616,-0.8634511391204576,0.10563031091678776,-0.6764445891184065,-0.9176565312572937,-0.48366769765864537,-0.5381034316616125,-0.8456760075500038
-0.9177658654829481,0.8169323934454493,-0.6407823170218587,-0.09790117299857837,0.31576308341556025,0.007876628508049821,-0.6095702218167525,0.8373711049834627,-0.4999946589473905,-0.4894493422137054,0.128959508520482,0.1033995821930378,0.7475483397858764,0.9102462192353828,0.041146228546606656,0.7078031141216776,-0.5480392551068105,-0.7453257167172207,-0.8172786649018202,0.6222590774179442,0.15302898789893504,-0.5097443335940728,0.5061390749007768,-0.6117455916295071,0.7416387773042068,0.39018269020138274,-0.3774556901752846,0.7421368925019702,0.009294897379178657,0.8484931980858839,0.017938058419534775,0.6043712935842076
0.7226016060360518,0.0061120195080646145,-0.10585427832177108,0.5253361503047786,-0.9070238544173987,0.14011839597204334,-0.8654676519642028,0.6883965920277464,0.5627003310260843,0.19884320811006506,0.16367597336586126,-0.41366346373335516,0.2406079781497683,0.9909919978873527,0.905805063685321,-0.6715304272276741,-0.3515555556144503,-0.001877824285803742,0.8747897093082473,0.34673779919760905,0.8391202732316416,-0.8898809797729892,-0.7298506303004486,0.16882388580036078,-0.2440621259303759,-0.5719525948910613,0.7046044995212626,-0.6543657457742555,0.4878557011995117,0.44069188998739683,-0.2739994215667245,-0.3834983063943602
-0.014462216662130878,0.787924490088955,0.5111660947488648,0.466537925188687,0.752039342957812,0.09714249589135182,0.9049721883169113,0.3750942263281152,0.7484003094768132,-0.3269729498717566,-0.5078920346538343,-0.7616535973743022,0.9905489930032363,-0.7964887510660019,-0.8503931392128463,0.8222026297368656,-0.4575188892778703,-0.3698555189271562,0.3485504367426464,0.37749756949791013,-0.2327858186337195,0.4161044755403249,-0.4230164732748307,0.012275353184463711,-0.6737383617270514,0.2832868047137935,0.7341083944449496,0.014491348149693106,-0.6578034735252674,0.056858644127657954,0.6985084651296756,-0.4874436033276266
