0.7848589978297704,0.5632363902442588,-0.9912744985659645,0.20514159354179373,-0.06665798372300613,0.9933849375073875,0.2468598186483335,-0.2839157085188113,0.5416631262833067,-0.5893524946147397,-0.7604042632335493,-0.7036627261262447,-0.7285433168284088,0.2515987587185473,-0.5948343794164317,-0.6459811989909172,0.4675416916925761,-0.7756381651430013,0.12229539410575185,-0.392239623649959,-0.7457991256247054,0.7006162396710172,-0.5698709110548379,0.08281545012723224
0.058326100454768603,0.5330461349241844,-0.9311467608868302,0.8856655004826943,-0.1886258592108383,0.620455196410673,-0.8849945910434964,0.44341437197528966,0.08956761172648675,-0.5157548439668245,-0.6065642787904071,-0.6937810020550848,0.9397321780525296,-0.11794445641801965,0.21710725170637857,0.9268136593258705,-0.4545694582771729,-0.9589468743926779,-0.48646507902610914,-0.031055688707160023,0.13773752629657143,-0.3080291059188116,-0.2603593265500699,-0.7721826976377799
-0.9515897354354994,-0.6814634894238167,0.5363265248587274,-0.007651714306607937,-0.02228508940825047,-0.07244162393173981,-0.03423509849242956,-0.6507871505795262,0.43642896048513347,0.8274895474873782,-0.0942772995361143,-0.7632141871713118,-0.9393212776338589,0.3607513932345905,-0.5619012691510359,-0.7978633608981225,0.39897904390184213,-0.8570484888114183,0.8584117421944062,-0.905609163745676,0.5382717696513977,0.44530271471658667,-0.4901324758188981,0.09192670751763243
-0.7697089675870719,-0.32324603711666744,-0.12016973697174071,0.5201191447523041,0.6766943768989511,-0.40926246490084406,0.9987775109180099,0.09753140707915553,0.937030349292274,0.9228189394765296,0.8871998410147206,-0.02870681483266324,0.6281027096737217,-0.6897500092190616,0.1673737630981018,-0.8683719849840992,-0.27204314954738806,-0.5356476265135763,0.19908696311015528,-0.9938899199007096,0.40154818570509754,-0.908382432204452,-0.25109241495125345,0.08671328629214448
0.2782948358778461,0.17740187813728014,0.9065917784146551,0.31302991263638447,0.5518110242394689,-0.30218687739629235,-0.29743262734734643,0.4368312084194772,-0.40281089395003433,-0.6840729512887558,-0.9673957995031899,-0.9488415787727327,0.6672586492684154,0.6716521447032924,-0.22914102473218168,-0.8607721442212657,-0.936296172464236,-0.8076613931352419,0.15055303872884696,-0.3162675111642026,0.14711561857160516,0.13253798891922908,-0.7981015985688185,-0.5521200685617256
-0.1845177163405134,-0.8228993746796553,0.5821152028927392,-0.2874506552639815,0.3071224351567501,-0.09041217778010657,0.6968291051727153,-0.3579720959058914,0.08342619626660674,-0.3526948326148325,0.7257215231337824,-0.7972768471814973,-0.9603986998768792,-0.30952592413465263,0.7845915705742572,0.6533112713757594,-0.8495755905523878,-0.20889110278769296,0.08451551636829735,-0.5760716449672805,0.5265294129851492,0.9703100479002866,-0.49726954726738337,-0.05626922686935676
-0.10654514540859394,0.11063108384317721,-0.5708924039025418,-0.1945351735167058,0.022501061431819736,-0.4857984052992179,-0.5915096601256482,-0.4262258451597567,0.2762918723096841,0.7758129478456792,-0.084550423083803,0.7285461914761844,-0.45748796955303717,0.16545774518865608,-0.4072666190245309,0.5658537171880786,-0.7999279508323285,0.2711212757246566,0.16747261537295688,-0.8939504895426884,0.12903071527248877,0.7937789415795389,0.15920666936725203,-0.26322091272503423
-0.39377170194817546,0.7068695471115891,-0.05042291764613438,0.7338463739923307,-0.32861815576813336,0.10887096806406604,0.31664567496880625,-0.0050039527413621165,0.8991029699126334,-0.34817356013980305,0.6862246140236763,-0.4393512964747841,-0.1489365440464787,0.46066432588533446,-0.7792516390746371,0.08972956790960973,-0.49291689715116616,-0.8634511391204576,0.10563031091678776,-0.6764445891184065,-0.9176565312572937,-0.48366769765864537,-0.5381034316616125,-0.8456760075500038
